// Neural Network File Format by Kyle Julian, Stanford 2016
2,2,9,14,
2,14,9,
0,
0,0,
3,3,
1.5,1.5,1,
3,3,2,
1.21577e+00,-1.98585e+00,
2.73042e-01,-1.01428e-01,
1.10247e+00,-1.98111e+00,
4.79800e-01,-9.86342e-02,
-1.74443e-01,2.41940e-01,
-2.01130e+00,-2.58823e-01,
-1.01616e-01,-1.09286e+00,
1.11424e+00,1.93467e+00,
8.31617e-01,-6.95144e-01,
-5.37706e-01,1.75082e+00,
-2.59077e+00,-5.43921e-01,
8.93752e-02,-3.40871e-01,
-2.42008e-01,-2.89542e-01,
-5.92199e-01,-3.79122e-02,
1.03820e+00,
-1.78588e-01,
1.01713e+00,
-5.61983e-01,
7.16655e-01,
6.74703e-01,
4.52067e-01,
1.15288e+00,
-1.91485e-01,
9.75999e-01,
1.04901e+00,
1.28163e-01,
-2.42852e-01,
-4.89478e-01,
2.07407e-01,2.33556e-02,2.76905e-01,-5.08106e-03,-3.44966e-01,1.08564e+00,3.20127e-01,-1.50511e+00,-1.11802e-01,-6.91394e-01,1.12903e+00,1.42053e-01,8.81923e-02,-5.45952e-02,
9.16294e-01,-1.17169e-01,9.24656e-01,1.80216e-01,-2.36090e-01,-1.11456e-01,7.16279e-01,-8.54067e-01,-3.17765e-01,-6.77476e-01,3.31405e-01,-1.60619e-01,2.99183e-02,2.03133e-01,
1.35470e+00,-1.87382e-01,1.29461e+00,2.37853e-01,-1.81411e-01,-6.78331e-01,2.73431e-01,-6.05325e-01,3.88528e-01,-1.08837e+00,-1.07424e+00,2.52308e-01,-5.13512e-02,-3.18259e-03,
-5.65126e-01,2.34442e-01,-4.09402e-01,-2.34899e-01,-2.30565e-01,9.45043e-01,1.64147e-01,-7.37281e-01,9.77464e-02,3.85704e-01,1.18111e+00,-9.83565e-02,1.28889e-01,7.61211e-02,
3.51064e-02,-2.02128e-01,2.62948e-01,-5.80108e-02,1.90953e-01,6.09671e-02,1.79226e-01,5.17721e-02,-1.63708e-01,1.75695e-01,1.31162e-01,2.34558e-01,-7.75575e-02,-1.59397e-01,
5.31159e-01,1.94276e-01,8.13433e-01,2.39550e-01,-1.66569e-01,-8.18030e-01,1.25445e-01,4.03580e-01,-4.12245e-02,-8.28416e-02,-1.21558e+00,-1.32273e-02,-1.43069e-01,7.99142e-02,
-1.40797e+00,1.21163e-01,-1.32815e+00,-6.83322e-02,2.59179e-01,8.29968e-01,-6.11182e-01,2.16064e-01,1.30298e-01,6.73559e-01,7.18263e-01,-3.82784e-02,9.09332e-02,1.21364e-01,
-8.42280e-01,-3.65982e-02,-8.94153e-01,-2.50892e-01,-6.56339e-02,-2.71934e-01,-1.74275e-01,7.96399e-01,4.15393e-02,8.92530e-01,-9.15175e-02,-3.29337e-01,-2.12947e-01,3.58615e-02,
-1.40303e-01,1.68309e-01,-2.86784e-01,-2.28969e-01,-3.72998e-02,-6.42694e-01,-5.30907e-01,1.28952e+00,1.22436e-01,5.07031e-01,-1.36909e+00,-1.70368e-01,-4.72284e-02,1.62513e-01,
-2.42503e-01,
-3.04961e-01,
-3.70588e-01,
-6.91938e-02,
1.78851e-01,
3.54530e-01,
-7.53710e-02,
4.29313e-01,
2.19037e-01,
